tree
version=v4
num_class=1
num_tree_per_iteration=1
label_index=0
max_feature_idx=6
objective=binary sigmoid:1
feature_names=step type amount oldbalanceOrg newbalanceOrig oldbalanceDest newbalanceDest
feature_infos=[1:739] [0:4] [0.029999999999999999:69886731.299999997] [0:34616322.780000001] [0:34602831.609999999] [0:236251233.28999999] [0:235989524.55000001]
tree_sizes=3494

Tree=0
num_leaves=31
num_cat=0
split_feature=3 4 2 0 2 1 6 3 4 3 2 3 4 2 1 2 2 3 3 2 2 1 2 3 2 0 5 3 2 0
split_gain=6.06751e+08 6.98441e+08 7.13083e+07 6.96624e+07 3.2223e+07 3.03766e+07 8.9195e+07 1.72302e+07 2.11275e+07 1.30182e+07 6.28139e+07 8.63184e+06 1.65946e+07 3.82512e+07 4.1586e+07 4.85355e+06 2.82673e+06 1.57653e+07 2.5675e+06 2.84603e+07 2.54302e+06 3.66905e+06 1.03349e+06 865074 5.36309e+06 652601 728163 569826 2.90106e+06 462112
threshold=55725.500000000007 1.0000000180025095e-35 889944.77000000014 408.50000000000006 56593.090000000004 3.5000000000000004 1.0000000180025095e-35 320.50000000000006 1.0000000180025095e-35 112992.00000000001 113893.04000000002 1789.5000000000002 1.0000000180025095e-35 56593.090000000004 1.5000000000000002 170.78500000000003 21957.705000000005 22191.500000000004 218174.18500000003 220884.02500000005 355.14500000000004 1.5000000000000002 532.69500000000005 12430.495000000001 11434.965000000002 11.500000000000002 1.0000000180025095e-35 30799.500000000004 30799.385000000006 7.5000000000000009
decision_type=2 2 2 2 2 2 2 2 2 2 2 2 2 2 2 2 2 2 2 2 2 2 2 2 2 2 2 2 2 2
left_child=3 9 -3 5 7 11 -7 15 23 10 -2 20 13 14 16 -5 -13 -18 19 -11 21 -1 -8 24 -9 26 -24 28 -19 -15
right_child=1 2 -4 4 -6 6 22 8 -10 18 -12 12 -14 29 -16 -17 17 27 -20 -21 -22 -23 25 -25 -26 -27 -28 -29 -30 -31
leaf_value=27.732345756250833 30.905082888007488 -6.6172880426730281 31.969417611648336 30.143333905920901 -6.7013111824932077 31.945686025111325 27.92436153177756 29.528421239356579 -6.7013111824932077 31.128325871702568 -6.4185756320698335 28.751370869298778 -6.7013111824932077 23.378161606095542 -6.7013111824932077 -6.7013111824932077 -6.7013111824932077 30.276931495126679 31.800204880417855 -6.7013111824932077 -6.3059065380225245 -6.7013111824932077 22.671620312269891 31.175451409763905 -6.7013111824932077 -6.5172118055660668 -2.7538252266661116 29.23400740471676 -6.7013111824932077 -6.6285531068462493
leaf_weight=13.482417316874491 639.87974033586215 1841.7503146065865 128.0552182168467 10.500144853256641 127.31428454024717 240.25097220379394 2.2346084865275762 102.51225202297792 45.231092462316155 807.91297800012399 136.83249591919594 139.67881490895525 837.95987123379018 1.2861731760203827 178.15543498238549 60.087691317428835 44.195964576792903 21.970639306004163 4158.9841312302742 52.978438155958429 2152.536787292338 18.151476657600142 3.9513329872861496 250.24355458165519 11.345156314433551 420.28834312490653 9.8005189840914664 109.81163051258773 6.9919472616165868 531.72669432929251
leaf_count=1186 15737 1425646 427 418 98764 915 188 5340 35088 16267 105375 9444 650047 225 138204 46613 34285 816 27925 41098 1652829 14081 747 4803 8801 324493 6830 6366 5424 411714
internal_value=12.6924 21.6129 -4.1088 -0.282037 15.6612 -2.32775 7.48067 21.5936 25.5278 30.3537 24.3298 -3.96378 -1.4721 2.76643 12.6886 -1.22056 23.395 19.3059 31.2857 28.8003 -6.09908 7.97437 -5.9919 29.5315 25.9184 -6.16651 4.55169 27.5886 21.3499 -6.55615
internal_weight=13106.1 7766.39 1969.81 5339.71 607.234 4732.47 676.526 479.92 409.332 5796.59 776.712 4055.95 1871.78 1033.82 500.804 70.5878 322.649 182.97 5019.88 860.891 2184.17 31.6339 436.275 364.101 113.857 434.04 13.7519 138.774 28.9626 533.013
internal_count=5090096 1632475 1426073 3457621 199827 3257794 333173 101063 54032 206402 121112 2924621 1256525 606478 194539 47031 56335 46891 85290 57365 1668096 15267 332258 18944 14141 332070 7577 12606 6240 411939
is_linear=0
shrinkage=1


end of trees

feature_importances:
amount=11
oldbalanceOrg=8
step=3
type=3
newbalanceOrig=3
oldbalanceDest=1
newbalanceDest=1

parameters:
[boosting: gbdt]
[objective: binary]
[metric: auc]
[tree_learner: serial]
[device_type: cpu]
[data_sample_strategy: bagging]
[data: ]
[valid: ]
[num_iterations: 1000]
[learning_rate: 0.05]
[num_leaves: 31]
[num_threads: 0]
[seed: 42]
[deterministic: 0]
[force_col_wise: 0]
[force_row_wise: 0]
[histogram_pool_size: -1]
[max_depth: -1]
[min_data_in_leaf: 20]
[min_sum_hessian_in_leaf: 0.001]
[bagging_fraction: 1]
[pos_bagging_fraction: 1]
[neg_bagging_fraction: 1]
[bagging_freq: 0]
[bagging_seed: 400]
[bagging_by_query: 0]
[feature_fraction: 1]
[feature_fraction_bynode: 1]
[feature_fraction_seed: 30056]
[extra_trees: 0]
[extra_seed: 12879]
[early_stopping_round: 0]
[early_stopping_min_delta: 0]
[first_metric_only: 0]
[max_delta_step: 0]
[lambda_l1: 0]
[lambda_l2: 0]
[linear_lambda: 0]
[min_gain_to_split: 0]
[drop_rate: 0.1]
[max_drop: 50]
[skip_drop: 0.5]
[xgboost_dart_mode: 0]
[uniform_drop: 0]
[drop_seed: 17869]
[top_rate: 0.2]
[other_rate: 0.1]
[min_data_per_group: 100]
[max_cat_threshold: 32]
[cat_l2: 10]
[cat_smooth: 10]
[max_cat_to_onehot: 4]
[top_k: 20]
[monotone_constraints: ]
[monotone_constraints_method: basic]
[monotone_penalty: 0]
[feature_contri: ]
[forcedsplits_filename: ]
[refit_decay_rate: 0.9]
[cegb_tradeoff: 1]
[cegb_penalty_split: 0]
[cegb_penalty_feature_lazy: ]
[cegb_penalty_feature_coupled: ]
[path_smooth: 0]
[interaction_constraints: ]
[verbosity: -1]
[saved_feature_importance_type: 0]
[use_quantized_grad: 0]
[num_grad_quant_bins: 4]
[quant_train_renew_leaf: 0]
[stochastic_rounding: 1]
[linear_tree: 0]
[max_bin: 255]
[max_bin_by_feature: ]
[min_data_in_bin: 3]
[bin_construct_sample_cnt: 200000]
[data_random_seed: 175]
[is_enable_sparse: 1]
[enable_bundle: 1]
[use_missing: 1]
[zero_as_missing: 0]
[feature_pre_filter: 1]
[pre_partition: 0]
[two_round: 0]
[header: 0]
[label_column: ]
[weight_column: ]
[group_column: ]
[ignore_column: ]
[categorical_feature: ]
[forcedbins_filename: ]
[precise_float_parser: 0]
[parser_config_file: ]
[objective_seed: 16083]
[num_class: 1]
[is_unbalance: 0]
[scale_pos_weight: 773.748]
[sigmoid: 1]
[boost_from_average: 1]
[reg_sqrt: 0]
[alpha: 0.9]
[fair_c: 1]
[poisson_max_delta_step: 0.7]
[tweedie_variance_power: 1.5]
[lambdarank_truncation_level: 30]
[lambdarank_norm: 1]
[label_gain: ]
[lambdarank_position_bias_regularization: 0]
[eval_at: ]
[multi_error_top_k: 1]
[auc_mu_weights: ]
[num_machines: 1]
[local_listen_port: 12400]
[time_out: 120]
[machine_list_filename: ]
[machines: ]
[gpu_platform_id: -1]
[gpu_device_id: -1]
[gpu_use_dp: 0]
[num_gpu: 1]

end of parameters

pandas_categorical:[]
